SVM-light Version V6.20
0 # kernel type
3 # kernel parameter -d 
1 # kernel parameter -g 
1 # kernel parameter -s 
1 # kernel parameter -r 
empty# kernel parameter -u 
1338 # highest feature index 
117 # number of training documents 
2 # number of support vectors plus 1 
0 # threshold b, each following line is a SV (starting with alpha*y)
1 1:-0.00065441453 2:0.026162058 3:0.00012226703 4:0.4866842 5:0.23249681 6:0.71533161 7:0.49495724 13:1.066638e-14 29:-0.017241379 30:0.0169186 66:0.013117078 84:-0.034482758 95:1.066638e-14 134:1.066638e-14 184:0.0080586048 186:0.034482758 204:0.024248201 219:-0.01324118 242:1.066638e-14 246:0.009335937 279:4.6583307e-19 293:0.016377473 296:9.3166614e-19 311:0.016379807 322:-0.016794298 325:0.017241379 326:-0.017327748 330:-0.022731295 334:0.016891206 335:-0.036582053 339:-0.13793103 340:-0.00012799531 342:-0.0033395402 343:-0.034482758 344:0.0042543733 346:-0.0044014305 347:0.0096745938 352:-0.0040001995 364:0.036022052 368:-0.012081977 370:0.034482758 372:-0.017241379 373:-1.066638e-14 376:0.017403763 381:0.065051809 383:0.016715573 386:-0.011775191 388:-0.017241379 392:0.0042231763 398:-0.0042038802 404:4.6583307e-19 407:0.017241379 408:0.0040001995 412:0.024915248 413:3.199914e-14 414:0.017241379 425:-0.013057545 431:0.017241379 435:-0.00017961838 443:0.0010395003 445:0.012707115 446:-0.017241379 451:-0.021874148 457:-0.051468149 461:0.008407589 462:0.0044013434 472:0.10933575 473:0.012105333 475:1.0667312e-14 479:0.062462371 480:-0.011808689 482:0.014845126 484:2.133276e-14 486:-0.058294374 488:-0.031378999 489:1.0667312e-14 491:-0.016377473 493:-0.01114686 507:2.1332294e-14 509:-0.028766399 511:0.0040001995 513:4.6583307e-19 515:-0.034859236 519:0.018492009 520:1.3974992e-18 527:-0.0058476301 532:0.051697772 536:-0.022237707 537:0.044713546 542:0.068838678 545:-0.016739747 547:4.6583307e-19 555:5.5365745e-10 556:-0.017241379 558:0.087841131 559:-0.017241379 561:-0.01052985 562:0.017113384 563:-0.039514519 568:-0.090426736 572:0.0013616775 573:0.0092767971 579:-0.033267643 588:-0.013117078 592:-0.041350123 594:0.069527268 599:-0.051724136 603:-0.014131465 604:0.034498189 608:-0.017241379 609:4.6583307e-19 616:0.012081977 619:0.016794298 622:2.1333692e-14 623:-0.0081890775 624:-0.017241379 626:0.00018012458 627:-0.1611672 629:-0.033395864 630:-0.036407113 631:-0.077220567 632:-1.066638e-14 633:0.025043117 634:-0.055098984 635:0.040149175 636:0.042886615 637:-0.078930512 638:0.017419411 639:-5.745652e-05 640:0.10057212 641:-0.13322566 642:0.020355511 643:-0.023066182 644:0.086206898 645:0.011801045 646:-0.034482758 648:0.073238865 649:0.051724136 650:-0.017241379 651:-0.047723938 652:-0.0090462333 653:-0.090101421 655:-0.016705882 656:-0.0094229337 657:0.10047279 659:-0.046538755 660:-0.017241379 661:-0.030206453 662:-0.014824993 663:-0.016878763 664:-0.018592414 666:-0.014344275 667:-0.0047387257 668:0.19197646 669:-0.029922316 670:-0.035500005 671:0.088944018 672:-0.020580919 673:0.019340673 674:-4.6583307e-19 675:0.10310946 676:-0.0044593755 677:-0.017241379 679:-0.034354765 680:0.0091042258 681:-0.014627813 685:-0.00012799531 686:1.066638e-14 687:-0.17951806 688:-0.14007847 689:0.023290068 690:-0.051724136 692:0.12915912 693:-0.051373497 695:-0.051724136 696:-2.1333226e-14 697:-0.076246709 698:0.10941269 701:0.12071741 702:-0.010579664 704:-0.0085623572 705:-0.01944817 706:0.024937211 707:-0.059423916 708:-0.082216121 709:-0.010963823 710:-2.133276e-14 711:0.21090378 713:-0.018697843 714:0.013460862 715:-0.0086607514 717:-0.13729919 721:0.056160301 723:-0.035167746 728:-0.049071893 737:-0.017113384 739:-0.058221228 740:0.048016418 744:-0.017241379 748:-0.017241379 756:-0.013148577 759:1.0666846e-14 766:0.012081977 775:0.012055996 776:0.013117078 777:0.024864128 779:0.017540356 787:-0.015646042 793:-0.059629582 794:-0.047723938 796:-0.017241379 805:0.0076104263 811:0.00029897713 817:-0.034482758 824:-0.042388201 830:-0.038540415 831:-0.034482758 832:0.012081977 840:-0.059082422 844:0.051596142 847:0.013293463 865:-0.017241379 873:-0.00025338648 874:0.093708873 875:0.017113384 876:-1.0665914e-14 883:0.020485157 889:0.028853144 894:0.053841297 896:0.034482758 897:0.11985792 902:-0.017241379 904:0.078259282 911:-0.017113384 912:0.017241379 914:0.041361585 917:-0.03517786 919:-4.6583307e-19 926:-0.017113384 927:1.0666846e-14 929:-0.047723938 941:4.6583307e-19 950:-0.017113384 952:-0.017241379 956:-0.03903516 958:0.068278208 962:-0.01621566 963:-0.0033530658 989:4.6583307e-19 990:0.0081062447 993:0.017241379 997:-2.133276e-14 1003:0.016377473 1006:0.017241379 1010:-0.050773744 1011:0.012081977 1021:-0.033067249 1023:-0.01259836 1024:-0.0021174087 1025:0.089893319 1026:-0.10448303 1028:-0.12020963 1029:0.019767914 1030:-0.066967152 1031:-0.051724136 1032:-0.075022861 1033:-0.16361262 1034:-0.13293251 1035:-0.030269025 1036:-0.12877765 1037:-0.00062682288 1038:-0.064007156 1039:-0.008517961 1040:-0.041730613 1041:-0.11586855 1042:-0.0049403831 1043:-0.0061326795 1044:-0.00035017429 1045:0.017241379 1046:-0.016932145 1047:2.1333226e-14 1048:-0.080089904 1049:0.00064248202 1050:0.010539944 1051:0.027384754 1052:0.027304571 1053:0.030712634 1054:-0.062337805 1055:0.30170083 1056:-0.073700085 1057:0.060678415 1058:0.009423106 1059:0.161714 1061:0.0073112734 1062:0.15451007 1063:-0.063005149 1064:-0.043254759 1065:-0.033760205 1066:-0.031091137 1067:-0.0099981613 1068:-0.024157418 1069:0.056330726 1070:-0.0049203844 1071:0.071790554 1072:0.0066256491 1073:0.011514675 1074:0.0048761638 1075:0.029882621 1076:0.38577393 1077:-0.043826465 1078:-0.029238727 1079:-0.0243087 1080:-0.022814676 1081:-0.12363762 1082:-4.6583307e-19 1083:-0.017241379 1084:0.089667074 1085:-0.014158322 1086:0.11233613 1087:-0.0019183538 1088:-0.030442057 1089:-0.089351684 1090:-0.0033112995 1091:0.037458211 1092:0.13115904 1093:0.016202165 1094:-0.023914674 1095:0.0062766704 1096:0.045016248 1097:0.070542432 1098:-0.098754659 1099:-0.060747638 1100:-0.082668588 1101:0.14009127 1102:-0.1401829 1103:-0.058471348 1104:-0.042447064 1105:-0.031938378 1106:-0.19012751 1108:-0.085944936 1109:-0.020885624 1110:0.0072826822 1111:0.065093316 1112:0.021470055 1114:-0.038865916 1115:-0.017113384 1116:0.090446457 1117:0.064622559 1118:-0.047240283 1119:-0.0034243951 1120:-0.022043925 1121:-0.051724136 1122:0.14750424 1123:0.023914464 1124:0.034062244 1125:-0.070277728 1126:-0.038094576 1127:0.032345884 1128:-0.026287613 1129:-0.00058211241 1131:0.049100406 1132:-0.052038617 1133:0.14449906 1134:0.010689485 1135:-0.097278036 1136:-0.061893664 1137:0.046392608 1138:-0.016772024 1139:0.00083857181 1140:0.095740743 1141:-0.017461061 1142:0.0047605531 1143:0.031290676 1144:-0.013710551 1145:-0.023975106 1146:-0.0055023017 1147:-0.08913932 1148:0.075848028 1149:-0.20672429 1150:-0.10749492 1151:-0.0081671448 1152:0.080408297 1153:0.043672379 1154:0.071663484 1155:-0.012901604 1156:-0.013740255 1157:0.043992322 1158:-0.07408388 1159:-0.050493229 1160:-0.034354765 1161:-0.011592411 1162:-0.091054916 1163:-0.03179558 1164:-0.16759707 1165:0.13024598 1166:-0.031680841 1167:-0.055525802 1168:-0.024235317 1169:-0.017427865 1170:-0.017241379 1171:0.11756096 1172:0.024997395 1173:-0.03127341 1174:0.049184896 1175:-0.16500601 1176:-0.080089904 1177:0.072653629 1179:0.023919875 1180:0.017183922 1181:0.019446844 1182:-0.055607378 1183:0.012105333 1184:0.02913742 1185:0.061994854 1186:0.036101177 1187:-0.018037682 1188:0.06747105 1189:-0.049820933 1190:0.076428905 1191:0.36155048 1192:0.067672223 1193:-0.055087417 1194:0.12030814 1195:-0.043592617 1196:-0.079682179 1197:-0.030928059 1198:0.031587128 1199:-0.040594298 1200:-0.090879418 1201:-0.050860234 1202:-0.035626229 1203:-0.07423377 1204:-0.020176403 1205:0.01100964 1206:0.037482671 1207:-0.016592406 1208:0.051409658 1209:0.059073303 1210:-0.068755366 1211:0.050850503 1212:0.14833613 1213:0.012502301 1214:-0.070780717 1215:-0.017241379 1216:0.12952717 1217:-0.027986409 1218:0.050084591 1219:-0.092835531 1220:-0.017241379 1221:0.03290597 1222:-0.11211425 1223:-0.0054670791 1225:0.020582203 1226:0.20874426 1227:-0.048130646 1228:0.49118346 1229:0.056622066 1230:-0.095478982 1231:0.0027643337 1232:-0.014405238 1233:-0.12816821 1234:-0.042322066 1235:-0.034354765 1236:0.056517273 1237:0.019632125 1238:-0.021210963 1239:-0.035279062 1240:0.012081977 1241:0.071073338 1242:-0.036517497 1243:-0.039634101 1244:-0.12932983 1245:-1.1534109e-05 1246:0.19117983 1247:-0.093383498 1248:-0.034181081 1249:-0.029012045 1250:-0.019159732 1251:0.076977469 1253:-0.052989826 1254:0.044116687 1255:-0.046731204 1256:-0.046091709 1257:-0.0022156567 1258:-0.078290462 1259:0.057072282 1260:0.050577704 1261:-0.013416473 1262:-0.019067196 1263:-0.034226768 1264:0.04202757 1266:-0.030430779 1267:-0.038848493 1268:0.0050253589 1269:-0.069366045 1270:0.054028697 1271:0.067685306 1272:-0.05043266 1273:0.012059593 1274:-0.022612941 1275:-0.07627102 1276:-0.071441293 1277:-0.0087340418 1278:0.11747789 1279:-0.0186124 1280:0.13000889 1281:-0.031718425 1282:0.0032457672 1283:-0.044208374 1284:0.1638951 1285:-0.086605236 1286:-0.023139589 1287:0.20239617 1288:-0.00012799531 1289:-0.016393041 1291:0.016166704 1292:-0.25962862 1293:-0.032236155 1294:-0.0009017674 1296:0.085641578 1297:0.001954441 1298:-0.034030061 1299:0.0050636572 1300:-0.055171087 1301:-0.045927998 1302:0.029516093 1303:-0.0066732955 1304:0.00029637231 1305:-0.060404073 1308:-0.089268938 1309:-0.070133403 1310:0.053342558 1311:-0.047397356 1312:0.080141202 1313:-0.00968727 1314:0.070084766 1315:0.0018173816 1316:-0.013803973 1317:-0.1033422 1318:0.10249294 1319:0.020678785 1320:-0.016049819 1321:-0.034354765 1322:0.01312248 1323:0.0031099145 1324:-0.079624839 1325:-0.071161054 1326:0.012252372 1327:0.0076776822 1328:-0.035282381 1329:0.016794298 1330:0.032086506 1331:-0.020722153 1332:0.0090203825 1333:0.055175144 1334:0.017241379 1335:0.040759429 1336:-0.05025252 #
